<?xml version="1.0" encoding="UTF-8" standalone="yes"?>
<PMML xmlns="http://www.dmg.org/PMML-4_3" version="4.3">
	<Header>
		<Application name="JPMML-SkLearn" version="1.1-SNAPSHOT"/>
		<Timestamp>2016-10-06T10:35:39Z</Timestamp>
	</Header>
	<DataDictionary>
		<DataField name="Setting1" optype="continuous" dataType="float"/>
		<DataField name="Setting2" optype="continuous" dataType="float"/>
		<DataField name="Sensor2" optype="continuous" dataType="float"/>
		<DataField name="Sensor3" optype="continuous" dataType="float"/>
		<DataField name="Sensor4" optype="continuous" dataType="float"/>
		<DataField name="Sensor6" optype="continuous" dataType="float"/>
		<DataField name="Sensor7" optype="continuous" dataType="float"/>
		<DataField name="Sensor8" optype="continuous" dataType="float"/>
		<DataField name="Sensor9" optype="continuous" dataType="float"/>
		<DataField name="Sensor11" optype="continuous" dataType="float"/>
		<DataField name="Sensor12" optype="continuous" dataType="float"/>
		<DataField name="Sensor13" optype="continuous" dataType="float"/>
		<DataField name="Sensor14" optype="continuous" dataType="float"/>
		<DataField name="Sensor15" optype="continuous" dataType="float"/>
		<DataField name="Sensor17" optype="continuous" dataType="float"/>
		<DataField name="Sensor20" optype="continuous" dataType="float"/>
		<DataField name="Sensor21" optype="continuous" dataType="float"/>
		<DataField name="sd_10_Sensor2" optype="continuous" dataType="float"/>
		<DataField name="sd_10_Sensor3" optype="continuous" dataType="float"/>
		<DataField name="sd_10_Sensor4" optype="continuous" dataType="float"/>
		<DataField name="sd_10_Sensor6" optype="continuous" dataType="float"/>
		<DataField name="sd_10_Sensor7" optype="continuous" dataType="float"/>
		<DataField name="sd_10_Sensor8" optype="continuous" dataType="float"/>
		<DataField name="sd_10_Sensor9" optype="continuous" dataType="float"/>
		<DataField name="sd_10_Sensor11" optype="continuous" dataType="float"/>
		<DataField name="sd_10_Sensor12" optype="continuous" dataType="float"/>
		<DataField name="sd_10_Sensor13" optype="continuous" dataType="float"/>
		<DataField name="sd_10_Sensor14" optype="continuous" dataType="float"/>
		<DataField name="sd_10_Sensor15" optype="continuous" dataType="float"/>
		<DataField name="sd_10_Sensor17" optype="continuous" dataType="float"/>
		<DataField name="sd_10_Sensor20" optype="continuous" dataType="float"/>
		<DataField name="sd_10_Sensor21" optype="continuous" dataType="float"/>
		<DataField name="me_10_5_Sensor2" optype="continuous" dataType="float"/>
		<DataField name="me_10_5_Sensor3" optype="continuous" dataType="float"/>
		<DataField name="me_10_5_Sensor4" optype="continuous" dataType="float"/>
		<DataField name="me_10_5_Sensor6" optype="continuous" dataType="float"/>
		<DataField name="me_10_5_Sensor7" optype="continuous" dataType="float"/>
		<DataField name="me_10_5_Sensor8" optype="continuous" dataType="float"/>
		<DataField name="me_10_5_Sensor9" optype="continuous" dataType="float"/>
		<DataField name="me_10_5_Sensor11" optype="continuous" dataType="float"/>
		<DataField name="me_10_5_Sensor12" optype="continuous" dataType="float"/>
		<DataField name="me_10_5_Sensor13" optype="continuous" dataType="float"/>
		<DataField name="me_10_5_Sensor14" optype="continuous" dataType="float"/>
		<DataField name="me_10_5_Sensor15" optype="continuous" dataType="float"/>
		<DataField name="me_10_5_Sensor17" optype="continuous" dataType="float"/>
		<DataField name="me_10_5_Sensor20" optype="continuous" dataType="float"/>
		<DataField name="me_10_5_Sensor21" optype="continuous" dataType="float"/>
		<DataField name="k_closest_Sensor2" optype="continuous" dataType="float"/>
		<DataField name="k_closest_Sensor3" optype="continuous" dataType="float"/>
		<DataField name="k_closest_Sensor4" optype="continuous" dataType="float"/>
		<DataField name="k_closest_Sensor6" optype="continuous" dataType="float"/>
		<DataField name="k_closest_Sensor7" optype="continuous" dataType="float"/>
		<DataField name="k_closest_Sensor8" optype="continuous" dataType="float"/>
		<DataField name="k_closest_Sensor9" optype="continuous" dataType="float"/>
		<DataField name="k_closest_Sensor11" optype="continuous" dataType="float"/>
		<DataField name="k_closest_Sensor12" optype="continuous" dataType="float"/>
		<DataField name="k_closest_Sensor13" optype="continuous" dataType="float"/>
		<DataField name="k_closest_Sensor14" optype="continuous" dataType="float"/>
		<DataField name="k_closest_Sensor15" optype="continuous" dataType="float"/>
		<DataField name="k_closest_Sensor17" optype="continuous" dataType="float"/>
		<DataField name="k_closest_Sensor20" optype="continuous" dataType="float"/>
		<DataField name="k_closest_Sensor21" optype="continuous" dataType="float"/>
		<DataField name="RUL" optype="continuous" dataType="double"/>
	</DataDictionary>
	<MiningModel functionName="regression">
		<MiningSchema>
			<MiningField name="RUL" usageType="target"/>
			<MiningField name="Setting1"/>
			<MiningField name="Setting2"/>
			<MiningField name="Sensor2"/>
			<MiningField name="Sensor3"/>
			<MiningField name="Sensor4"/>
			<MiningField name="Sensor6"/>
			<MiningField name="Sensor7"/>
			<MiningField name="Sensor8"/>
			<MiningField name="Sensor9"/>
			<MiningField name="Sensor11"/>
			<MiningField name="Sensor12"/>
			<MiningField name="Sensor13"/>
			<MiningField name="Sensor14"/>
			<MiningField name="Sensor15"/>
			<MiningField name="Sensor17"/>
			<MiningField name="Sensor20"/>
			<MiningField name="Sensor21"/>
			<MiningField name="sd_10_Sensor2"/>
			<MiningField name="sd_10_Sensor3"/>
			<MiningField name="sd_10_Sensor4"/>
			<MiningField name="sd_10_Sensor6"/>
			<MiningField name="sd_10_Sensor7"/>
			<MiningField name="sd_10_Sensor8"/>
			<MiningField name="sd_10_Sensor9"/>
			<MiningField name="sd_10_Sensor11"/>
			<MiningField name="sd_10_Sensor12"/>
			<MiningField name="sd_10_Sensor13"/>
			<MiningField name="sd_10_Sensor14"/>
			<MiningField name="sd_10_Sensor15"/>
			<MiningField name="sd_10_Sensor17"/>
			<MiningField name="sd_10_Sensor20"/>
			<MiningField name="sd_10_Sensor21"/>
			<MiningField name="me_10_5_Sensor2"/>
			<MiningField name="me_10_5_Sensor3"/>
			<MiningField name="me_10_5_Sensor4"/>
			<MiningField name="me_10_5_Sensor6"/>
			<MiningField name="me_10_5_Sensor7"/>
			<MiningField name="me_10_5_Sensor8"/>
			<MiningField name="me_10_5_Sensor9"/>
			<MiningField name="me_10_5_Sensor11"/>
			<MiningField name="me_10_5_Sensor12"/>
			<MiningField name="me_10_5_Sensor13"/>
			<MiningField name="me_10_5_Sensor14"/>
			<MiningField name="me_10_5_Sensor15"/>
			<MiningField name="me_10_5_Sensor17"/>
			<MiningField name="me_10_5_Sensor20"/>
			<MiningField name="me_10_5_Sensor21"/>
			<MiningField name="k_closest_Sensor2"/>
			<MiningField name="k_closest_Sensor3"/>
			<MiningField name="k_closest_Sensor4"/>
			<MiningField name="k_closest_Sensor6"/>
			<MiningField name="k_closest_Sensor7"/>
			<MiningField name="k_closest_Sensor8"/>
			<MiningField name="k_closest_Sensor9"/>
			<MiningField name="k_closest_Sensor11"/>
			<MiningField name="k_closest_Sensor12"/>
			<MiningField name="k_closest_Sensor13"/>
			<MiningField name="k_closest_Sensor14"/>
			<MiningField name="k_closest_Sensor15"/>
			<MiningField name="k_closest_Sensor17"/>
			<MiningField name="k_closest_Sensor20"/>
			<MiningField name="k_closest_Sensor21"/>
		</MiningSchema>
		<Segmentation multipleModelMethod="average">
			<Segment id="1">
				<True/>
				<TreeModel functionName="regression" splitCharacteristic="binarySplit">
					<MiningSchema>
						<MiningField name="Setting1"/>
						<MiningField name="Setting2"/>
						<MiningField name="Sensor2"/>
						<MiningField name="Sensor3"/>
						<MiningField name="Sensor4"/>
						<MiningField name="Sensor7"/>
						<MiningField name="Sensor8"/>
						<MiningField name="Sensor9"/>
						<MiningField name="Sensor11"/>
						<MiningField name="Sensor12"/>
						<MiningField name="Sensor13"/>
						<MiningField name="Sensor14"/>
						<MiningField name="Sensor15"/>
						<MiningField name="Sensor17"/>
						<MiningField name="Sensor20"/>
						<MiningField name="Sensor21"/>
						<MiningField name="sd_10_Sensor2"/>
						<MiningField name="sd_10_Sensor3"/>
						<MiningField name="sd_10_Sensor4"/>
						<MiningField name="sd_10_Sensor6"/>
						<MiningField name="sd_10_Sensor7"/>
						<MiningField name="sd_10_Sensor8"/>
						<MiningField name="sd_10_Sensor9"/>
						<MiningField name="sd_10_Sensor11"/>
						<MiningField name="sd_10_Sensor12"/>
						<MiningField name="sd_10_Sensor13"/>
						<MiningField name="sd_10_Sensor14"/>
						<MiningField name="sd_10_Sensor15"/>
						<MiningField name="sd_10_Sensor17"/>
						<MiningField name="sd_10_Sensor20"/>
						<MiningField name="sd_10_Sensor21"/>
						<MiningField name="me_10_5_Sensor2"/>
						<MiningField name="me_10_5_Sensor3"/>
						<MiningField name="me_10_5_Sensor4"/>
						<MiningField name="me_10_5_Sensor6"/>
						<MiningField name="me_10_5_Sensor7"/>
						<MiningField name="me_10_5_Sensor8"/>
						<MiningField name="me_10_5_Sensor9"/>
						<MiningField name="me_10_5_Sensor11"/>
						<MiningField name="me_10_5_Sensor12"/>
						<MiningField name="me_10_5_Sensor13"/>
						<MiningField name="me_10_5_Sensor14"/>
						<MiningField name="me_10_5_Sensor15"/>
						<MiningField name="me_10_5_Sensor17"/>
						<MiningField name="me_10_5_Sensor20"/>
						<MiningField name="me_10_5_Sensor21"/>
						<MiningField name="k_closest_Sensor2"/>
						<MiningField name="k_closest_Sensor3"/>
						<MiningField name="k_closest_Sensor4"/>
						<MiningField name="k_closest_Sensor7"/>
						<MiningField name="k_closest_Sensor8"/>
						<MiningField name="k_closest_Sensor9"/>
						<MiningField name="k_closest_Sensor11"/>
						<MiningField name="k_closest_Sensor12"/>
						<MiningField name="k_closest_Sensor13"/>
						<MiningField name="k_closest_Sensor14"/>
						<MiningField name="k_closest_Sensor15"/>
						<MiningField name="k_closest_Sensor17"/>
						<MiningField name="k_closest_Sensor20"/>
						<MiningField name="k_closest_Sensor21"/>
					</MiningSchema>
					<Node id="1">
						<True/>
						<Node id="2">
							<SimplePredicate field="k_closest_Sensor11" operator="lessOrEqual" value="47.635002"/>
							<Node id="3">
								<SimplePredicate field="k_closest_Sensor11" operator="lessOrEqual" value="47.375"/>
								<Node id="4">
									<SimplePredicate field="k_closest_Sensor9" operator="lessOrEqual" value="9075.793"/>
									<Node id="5">
										<SimplePredicate field="sd_10_Sensor4" operator="lessOrEqual" value="1.6938504"/>
										<Node id="6">
											<SimplePredicate field="k_closest_Sensor4" operator="lessOrEqual" value="1401.8567"/>
											<Node id="7">
												<SimplePredicate field="k_closest_Sensor4" operator="lessOrEqual" value="1401.4382"/>
												<Node id="8">
													<SimplePredicate field="Sensor20" operator="lessOrEqual" value="38.955"/>
													<Node id="9">
														<SimplePredicate field="Sensor2" operator="lessOrEqual" value="642.37"/>
														<Node id="10">
															<SimplePredicate field="k_closest_Sensor7" operator="lessOrEqual" value="554.19836"/>
															<Node id="11" score="189">
																<SimplePredicate field="Sensor11" operator="lessOrEqual" value="47.32"/>
															</Node>
															<Node id="12" score="153.66666666666666">
																<SimplePredicate field="Sensor11" operator="greaterThan" value="47.32"/>
															</Node>
														</Node>
														<Node id="13">
															<SimplePredicate field="k_closest_Sensor7" operator="greaterThan" value="554.19836"/>
															<Node id="14" score="201.67857142857142">
																<SimplePredicate field="Sensor8" operator="lessOrEqual" value="2388.025"/>
															</Node>
															<Node id="15" score="279.8">
																<SimplePredicate field="Sensor8" operator="greaterThan" value="2388.025"/>
															</Node>
														</Node>
													</Node>
													<Node id="16">
														<SimplePredicate field="Sensor2" operator="greaterThan" value="642.37"/>
														<Node id="17">
															<SimplePredicate field="k_closest_Sensor7" operator="lessOrEqual" value="554.0267"/>
															<Node id="18" score="309">
																<SimplePredicate field="k_closest_Sensor8" operator="lessOrEqual" value="2388.06"/>
															</Node>
															<Node id="19" score="190.6">
																<SimplePredicate field="k_closest_Sensor8" operator="greaterThan" value="2388.06"/>
															</Node>
														</Node>
														<Node id="20">
															<SimplePredicate field="k_closest_Sensor7" operator="greaterThan" value="554.0267"/>
															<Node id="21" score="210">
																<SimplePredicate field="Sensor4" operator="lessOrEqual" value="1392.5901"/>
															</Node>
															<Node id="22" score="150.72222222222223">
																<SimplePredicate field="Sensor4" operator="greaterThan" value="1392.5901"/>
															</Node>
														</Node>
													</Node>
												</Node>
												<Node id="23">
													<SimplePredicate field="Sensor20" operator="greaterThan" value="38.955"/>
													<Node id="24">
														<SimplePredicate field="k_closest_Sensor9" operator="lessOrEqual" value="9060.275"/>
														<Node id="25">
															<SimplePredicate field="k_closest_Sensor4" operator="lessOrEqual" value="1401.1683"/>
															<Node id="26" score="193.57894736842104">
																<SimplePredicate field="k_closest_Sensor14" operator="lessOrEqual" value="8133.797"/>
															</Node>
															<Node id="27" score="232.70212765957447">
																<SimplePredicate field="k_closest_Sensor14" operator="greaterThan" value="8133.797"/>
															</Node>
														</Node>
														<Node id="28">
															<SimplePredicate field="k_closest_Sensor4" operator="greaterThan" value="1401.1683"/>
															<Node id="29" score="332">
																<SimplePredicate field="Sensor14" operator="lessOrEqual" value="8141.9854"/>
															</Node>
															<Node id="30" score="356">
																<SimplePredicate field="Sensor14" operator="greaterThan" value="8141.9854"/>
															</Node>
														</Node>
													</Node>
													<Node id="31">
														<SimplePredicate field="k_closest_Sensor9" operator="greaterThan" value="9060.275"/>
														<Node id="32">
															<SimplePredicate field="k_closest_Sensor4" operator="lessOrEqual" value="1395.37"/>
															<Node id="33" score="194.125">
																<SimplePredicate field="k_closest_Sensor15" operator="lessOrEqual" value="8.3992"/>
															</Node>
															<Node id="34" score="270.90909090909093">
																<SimplePredicate field="k_closest_Sensor15" operator="greaterThan" value="8.3992"/>
															</Node>
														</Node>
														<Node id="35">
															<SimplePredicate field="k_closest_Sensor4" operator="greaterThan" value="1395.37"/>
															<Node id="36" score="190.28571428571428">
																<SimplePredicate field="k_closest_Sensor9" operator="lessOrEqual" value="9070.932"/>
															</Node>
															<Node id="37" score="275">
																<SimplePredicate field="k_closest_Sensor9" operator="greaterThan" value="9070.932"/>
															</Node>
														</Node>
													</Node>
												</Node>
											</Node>
											<Node id="38">
												<SimplePredicate field="k_closest_Sensor4" operator="greaterThan" value="1401.4382"/>
												<Node id="39">
													<SimplePredicate field="Setting2" operator="lessOrEqual" value="-3.5E-4"/>
													<Node id="40" score="128">
														<SimplePredicate field="Setting2" operator="lessOrEqual" value="-4.5E-4"/>
													</Node>
													<Node id="41">
														<SimplePredicate field="Setting2" operator="greaterThan" value="-4.5E-4"/>
														<Node id="42" score="186">
															<SimplePredicate field="k_closest_Sensor7" operator="lessOrEqual" value="553.39"/>
														</Node>
														<Node id="43" score="210">
															<SimplePredicate field="k_closest_Sensor7" operator="greaterThan" value="553.39"/>
														</Node>
													</Node>
												</Node>
												<Node id="44">
													<SimplePredicate field="Setting2" operator="greaterThan" value="-3.5E-4"/>
													<Node id="45">
														<SimplePredicate field="k_closest_Sensor13" operator="lessOrEqual" value="2388.045"/>
														<Node id="46">
															<SimplePredicate field="k_closest_Sensor3" operator="lessOrEqual" value="1590.725"/>
															<Node id="47" score="191.5">
																<SimplePredicate field="Sensor9" operator="lessOrEqual" value="9065.215"/>
															</Node>
															<Node id="48" score="226">
																<SimplePredicate field="Sensor9" operator="greaterThan" value="9065.215"/>
															</Node>
														</Node>
														<Node id="49" score="307">
															<SimplePredicate field="k_closest_Sensor3" operator="greaterThan" value="1590.725"/>
														</Node>
													</Node>
													<Node id="50">
														<SimplePredicate field="k_closest_Sensor13" operator="greaterThan" value="2388.045"/>
														<Node id="51">
															<SimplePredicate field="k_closest_Sensor8" operator="lessOrEqual" value="2388.045"/>
															<Node id="52" score="331">
																<SimplePredicate field="Sensor14" operator="lessOrEqual" value="8136.365"/>
															</Node>
															<Node id="53" score="338">
																<SimplePredicate field="Sensor14" operator="greaterThan" value="8136.365"/>
															</Node>
														</Node>
														<Node id="54" score="304">
															<SimplePredicate field="k_closest_Sensor8" operator="greaterThan" value="2388.045"/>
														</Node>
													</Node>
												</Node>
											</Node>
										</Node>
										<Node id="55">
											<SimplePredicate field="k_closest_Sensor4" operator="greaterThan" value="1401.8567"/>
											<Node id="56">
												<SimplePredicate field="sd_10_Sensor7" operator="lessOrEqual" value="0.350027"/>
												<Node id="57">
													<SimplePredicate field="k_closest_Sensor15" operator="lessOrEqual" value="8.44195"/>
													<Node id="58" score="358">
														<SimplePredicate field="k_closest_Sensor2" operator="lessOrEqual" value="641.8433"/>
													</Node>
													<Node id="59">
														<SimplePredicate field="k_closest_Sensor2" operator="greaterThan" value="641.8433"/>
														<Node id="60">
															<SimplePredicate field="Sensor4" operator="lessOrEqual" value="1402.44"/>
															<Node id="61" score="186.84615384615384">
																<SimplePredicate field="Sensor4" operator="lessOrEqual" value="1402.345"/>
															</Node>
															<Node id="62" score="295.3333333333333">
																<SimplePredicate field="Sensor4" operator="greaterThan" value="1402.345"/>
															</Node>
														</Node>
														<Node id="63">
															<SimplePredicate field="Sensor4" operator="greaterThan" value="1402.44"/>
															<Node id="64" score="169.27631578947367">
																<SimplePredicate field="me_10_5_Sensor13" operator="lessOrEqual" value="0.73540425"/>
															</Node>
															<Node id="65" score="104.33333333333333">
																<SimplePredicate field="me_10_5_Sensor13" operator="greaterThan" value="0.73540425"/>
															</Node>
														</Node>
													</Node>
												</Node>
												<Node id="66">
													<SimplePredicate field="k_closest_Sensor15" operator="greaterThan" value="8.44195"/>
													<Node id="67">
														<SimplePredicate field="k_closest_Sensor14" operator="lessOrEqual" value="8137.4634"/>
														<Node id="68" score="225">
															<SimplePredicate field="Sensor15" operator="lessOrEqual" value="8.452"/>
														</Node>
														<Node id="69">
															<SimplePredicate field="Sensor15" operator="greaterThan" value="8.452"/>
															<Node id="70" score="199">
																<SimplePredicate field="k_closest_Sensor2" operator="lessOrEqual" value="642.29663"/>
															</Node>
															<Node id="71" score="204">
																<SimplePredicate field="k_closest_Sensor2" operator="greaterThan" value="642.29663"/>
															</Node>
														</Node>
													</Node>
													<Node id="72">
														<SimplePredicate field="k_closest_Sensor14" operator="greaterThan" value="8137.4634"/>
														<Node id="73">
															<SimplePredicate field="Setting1" operator="lessOrEqual" value="0.0012"/>
															<Node id="74" score="271">
																<SimplePredicate field="Sensor20" operator="lessOrEqual" value="39.035"/>
															</Node>
															<Node id="75" score="270">
																<SimplePredicate field="Sensor20" operator="greaterThan" value="39.035"/>
															</Node>
														</Node>
														<Node id="76" score="310">
															<SimplePredicate field="Setting1" operator="greaterThan" value="0.0012"/>
														</Node>
													</Node>
												</Node>
											</Node>
											<Node id="77">
												<SimplePredicate field="sd_10_Sensor7" operator="greaterThan" value="0.350027"/>
												<Node id="78">
													<SimplePredicate field="k_closest_Sensor11" operator="lessOrEqual" value="47.288334"/>
													<Node id="79" score="278">
														<SimplePredicate field="me_10_5_Sensor14" operator="lessOrEqual" value="1.4184837"/>
													</Node>
													<Node id="80" score="293">
														<SimplePredicate field="me_10_5_Sensor14" operator="greaterThan" value="1.4184837"/>
													</Node>
												</Node>
												<Node id="81" score="323">
													<SimplePredicate field="k_closest_Sensor11" operator="greaterThan" value="47.288334"/>
												</Node>
											</Node>
										</Node>
									</Node>
									<Node id="82">
										<SimplePredicate field="sd_10_Sensor4" operator="greaterThan" value="1.6938504"/>
										<Node id="83">
											<SimplePredicate field="k_closest_Sensor11" operator="lessOrEqual" value="47.221664"/>
											<Node id="84">
												<SimplePredicate field="k_closest_Sensor9" operator="lessOrEqual" value="9056.721"/>
												<Node id="85">
													<SimplePredicate field="k_closest_Sensor13" operator="lessOrEqual" value="2388.0183"/>
													<Node id="86">
														<SimplePredicate field="sd_10_Sensor6" operator="lessOrEqual" value="0.0047407774"/>
														<Node id="87">
															<SimplePredicate field="k_closest_Sensor4" operator="lessOrEqual" value="1402.3434"/>
															<Node id="88" score="200.03370786516854">
																<SimplePredicate field="me_10_5_Sensor12" operator="lessOrEqual" value="1.5309507"/>
															</Node>
															<Node id="89" score="231.35714285714286">
																<SimplePredicate field="me_10_5_Sensor12" operator="greaterThan" value="1.5309507"/>
															</Node>
														</Node>
														<Node id="90">
															<SimplePredicate field="k_closest_Sensor4" operator="greaterThan" value="1402.3434"/>
															<Node id="91" score="160.42857142857142">
																<SimplePredicate field="sd_10_Sensor8" operator="lessOrEqual" value="0.033462062"/>
															</Node>
															<Node id="92" score="115.25">
																<SimplePredicate field="sd_10_Sensor8" operator="greaterThan" value="0.033462062"/>
															</Node>
														</Node>
													</Node>
													<Node id="93">
														<SimplePredicate field="sd_10_Sensor6" operator="greaterThan" value="0.0047407774"/>
														<Node id="94">
															<SimplePredicate field="k_closest_Sensor14" operator="lessOrEqual" value="8140.0986"/>
															<Node id="95" score="277">
																<SimplePredicate field="k_closest_Sensor11" operator="lessOrEqual" value="47.195"/>
															</Node>
															<Node id="96" score="276">
																<SimplePredicate field="k_closest_Sensor11" operator="greaterThan" value="47.195"/>
															</Node>
														</Node>
														<Node id="97" score="274">
															<SimplePredicate field="k_closest_Sensor14" operator="greaterThan" value="8140.0986"/>
														</Node>
													</Node>
												</Node>
												<Node id="98">
													<SimplePredicate field="k_closest_Sensor13" operator="greaterThan" value="2388.0183"/>
													<Node id="99">
														<SimplePredicate field="Sensor4" operator="lessOrEqual" value="1409.745"/>
														<Node id="100">
															<SimplePredicate field="sd_10_Sensor11" operator="lessOrEqual" value="0.07804087"/>
															<Node id="101" score="196.75925925925927">
																<SimplePredicate field="k_closest_Sensor8" operator="lessOrEqual" value="2388.045"/>
															</Node>
															<Node id="102" score="312">
																<SimplePredicate field="k_closest_Sensor8" operator="greaterThan" value="2388.045"/>
															</Node>
														</Node>
														<Node id="103">
															<SimplePredicate field="sd_10_Sensor11" operator="greaterThan" value="0.07804087"/>
															<Node id="104" score="167.7032967032967">
																<SimplePredicate field="Sensor14" operator="lessOrEqual" value="8145.71"/>
															</Node>
															<Node id="105" score="271">
																<SimplePredicate field="Sensor14" operator="greaterThan" value="8145.71"/>
															</Node>
														</Node>
													</Node>
													<Node id="106" score="315">
														<SimplePredicate field="Sensor4" operator="greaterThan" value="1409.745"/>
													</Node>
												</Node>
											</Node>
											<Node id="107">
												<SimplePredicate field="k_closest_Sensor9" operator="greaterThan" value="9056.721"/>
												<Node id="108">
													<SimplePredicate field="k_closest_Sensor12" operator="lessOrEqual" value="522.185"/>
													<Node id="109">
														<SimplePredicate field="k_closest_Sensor20" operator="lessOrEqual" value="38.981667"/>
														<Node id="110">
															<SimplePredicate field="k_closest_Sensor21" operator="lessOrEqual" value="23.29705"/>
															<Node id="111" score="147">
																<SimplePredicate field="sd_10_Sensor11" operator="lessOrEqual" value="0.10827732"/>
															</Node>
															<Node id="112" score="258.5">
																<SimplePredicate field="sd_10_Sensor11" operator="greaterThan" value="0.10827732"/>
															</Node>
														</Node>
														<Node id="113">
															<SimplePredicate field="k_closest_Sensor21" operator="greaterThan" value="23.29705"/>
															<Node id="114" score="329">
																<SimplePredicate field="sd_10_Sensor21" operator="lessOrEqual" value="0.027585533"/>
															</Node>
															<Node id="115" score="131.90070921985816">
																<SimplePredicate field="sd_10_Sensor21" operator="greaterThan" value="0.027585533"/>
															</Node>
														</Node>
													</Node>
													<Node id="116">
														<SimplePredicate field="k_closest_Sensor20" operator="greaterThan" value="38.981667"/>
														<Node id="117">
															<SimplePredicate field="sd_10_Sensor15" operator="lessOrEqual" value="0.014589239"/>
															<Node id="118" score="198.3939393939394">
																<SimplePredicate field="sd_10_Sensor3" operator="lessOrEqual" value="4.1160793"/>
															</Node>
															<Node id="119" score="162.4">
																<SimplePredicate field="sd_10_Sensor3" operator="greaterThan" value="4.1160793"/>
															</Node>
														</Node>
														<Node id="120">
															<SimplePredicate field="sd_10_Sensor15" operator="greaterThan" value="0.014589239"/>
															<Node id="121" score="148.86885245901638">
																<SimplePredicate field="Sensor7" operator="lessOrEqual" value="555.04504"/>
															</Node>
															<Node id="122" score="224.8">
																<SimplePredicate field="Sensor7" operator="greaterThan" value="555.04504"/>
															</Node>
														</Node>
													</Node>
												</Node>
												<Node id="123">
													<SimplePredicate field="k_closest_Sensor12" operator="greaterThan" value="522.185"/>
													<Node id="124">
														<SimplePredicate field="k_closest_Sensor3" operator="lessOrEqual" value="1582.705"/>
														<Node id="125">
															<SimplePredicate field="k_closest_Sensor4" operator="lessOrEqual" value="1394.75"/>
															<Node id="126" score="236.5625">
																<SimplePredicate field="me_10_5_Sensor12" operator="lessOrEqual" value="1.4446461"/>
															</Node>
															<Node id="127" score="202.1">
																<SimplePredicate field="me_10_5_Sensor12" operator="greaterThan" value="1.4446461"/>
															</Node>
														</Node>
														<Node id="128">
															<SimplePredicate field="k_closest_Sensor4" operator="greaterThan" value="1394.75"/>
															<Node id="129" score="163.81034482758622">
																<SimplePredicate field="sd_10_Sensor12" operator="lessOrEqual" value="0.22652212"/>
															</Node>
															<Node id="130" score="190.24852071005918">
																<SimplePredicate field="sd_10_Sensor12" operator="greaterThan" value="0.22652212"/>
															</Node>
														</Node>
													</Node>
													<Node id="131">
														<SimplePredicate field="k_closest_Sensor3" operator="greaterThan" value="1582.705"/>
														<Node id="132">
															<SimplePredicate field="Sensor21" operator="lessOrEqual" value="23.35815"/>
															<Node id="133" score="164.2">
																<SimplePredicate field="k_closest_Sensor8" operator="lessOrEqual" value="2388.0217"/>
															</Node>
															<Node id="134" score="133.0344827586207">
																<SimplePredicate field="k_closest_Sensor8" operator="greaterThan" value="2388.0217"/>
															</Node>
														</Node>
														<Node id="135">
															<SimplePredicate field="Sensor21" operator="greaterThan" value="23.35815"/>
															<Node id="136" score="180.97179487179488">
																<SimplePredicate field="sd_10_Sensor4" operator="lessOrEqual" value="4.389699"/>
															</Node>
															<Node id="137" score="154.64601769911505">
																<SimplePredicate field="sd_10_Sensor4" operator="greaterThan" value="4.389699"/>
															</Node>
														</Node>
													</Node>
												</Node>
											</Node>
										</Node>
										<Node id="138">
											<SimplePredicate field="k_closest_Sensor11" operator="greaterThan" value="47.221664"/>
											<Node id="139">
												<SimplePredicate field="k_closest_Sensor14" operator="lessOrEqual" value="8140.1216"/>
												<Node id="140">
													<SimplePredicate field="k_closest_Sensor12" operator="lessOrEqual" value="521.7817"/>
													<Node id="141">
														<SimplePredicate field="me_10_5_Sensor7" operator="lessOrEqual" value="1.0422866"/>
														<Node id="142">
															<SimplePredicate field="sd_10_Sensor9" operator="lessOrEqual" value="3.7430215"/>
															<Node id="143" score="180.66666666666666">
																<SimplePredicate field="sd_10_Sensor8" operator="lessOrEqual" value="0.026508853"/>
															</Node>
															<Node id="144" score="66">
																<SimplePredicate field="sd_10_Sensor8" operator="greaterThan" value="0.026508853"/>
															</Node>
														</Node>
														<Node id="145">
															<SimplePredicate field="sd_10_Sensor9" operator="greaterThan" value="3.7430215"/>
															<Node id="146" score="330">
																<SimplePredicate field="Sensor17" operator="lessOrEqual" value="392.5"/>
															</Node>
															<Node id="147" score="259.2">
																<SimplePredicate field="Sensor17" operator="greaterThan" value="392.5"/>
															</Node>
														</Node>
													</Node>
													<Node id="148">
														<SimplePredicate field="me_10_5_Sensor7" operator="greaterThan" value="1.0422866"/>
														<Node id="149">
															<SimplePredicate field="Sensor21" operator="lessOrEqual" value="23.47815"/>
															<Node id="150" score="155.82162162162163">
																<SimplePredicate field="me_10_5_Sensor15" operator="lessOrEqual" value="1.4877985"/>
															</Node>
															<Node id="151" score="132.03973509933775">
																<SimplePredicate field="me_10_5_Sensor15" operator="greaterThan" value="1.4877985"/>
															</Node>
														</Node>
														<Node id="152">
															<SimplePredicate field="Sensor21" operator="greaterThan" value="23.47815"/>
															<Node id="153" score="243.33333333333334">
																<SimplePredicate field="k_closest_Sensor8" operator="lessOrEqual" value="2388.0435"/>
															</Node>
															<Node id="154" score="305">
																<SimplePredicate field="k_closest_Sensor8" operator="greaterThan" value="2388.0435"/>
															</Node>
														</Node>
													</Node>
												</Node>
												<Node id="155">
													<SimplePredicate field="k_closest_Sensor12" operator="greaterThan" value="521.7817"/>
													<Node id="156">
														<SimplePredicate field="sd_10_Sensor21" operator="lessOrEqual" value="0.06189412"/>
														<Node id="157">
															<SimplePredicate field="sd_10_Sensor17" operator="lessOrEqual" value="1.4999406"/>
															<Node id="158" score="167.35">
																<SimplePredicate field="sd_10_Sensor12" operator="lessOrEqual" value="0.4305101"/>
															</Node>
															<Node id="159" score="264.875">
																<SimplePredicate field="sd_10_Sensor12" operator="greaterThan" value="0.4305101"/>
															</Node>
														</Node>
														<Node id="160">
															<SimplePredicate field="sd_10_Sensor17" operator="greaterThan" value="1.4999406"/>
															<Node id="161" score="307.5">
																<SimplePredicate field="sd_10_Sensor20" operator="lessOrEqual" value="0.13773142"/>
															</Node>
															<Node id="162" score="306">
																<SimplePredicate field="sd_10_Sensor20" operator="greaterThan" value="0.13773142"/>
															</Node>
														</Node>
													</Node>
													<Node id="163">
														<SimplePredicate field="sd_10_Sensor21" operator="greaterThan" value="0.06189412"/>
														<Node id="164">
															<SimplePredicate field="sd_10_Sensor21" operator="lessOrEqual" value="0.06604336"/>
															<Node id="165" score="271.6333333333333">
																<SimplePredicate field="sd_10_Sensor15" operator="lessOrEqual" value="0.015201143"/>
															</Node>
															<Node id="166" score="198.25">
																<SimplePredicate field="sd_10_Sensor15" operator="greaterThan" value="0.015201143"/>
															</Node>
														</Node>
														<Node id="167">
															<SimplePredicate field="sd_10_Sensor21" operator="greaterThan" value="0.06604336"/>
															<Node id="168" score="167.5759493670886">
																<SimplePredicate field="k_closest_Sensor9" operator="lessOrEqual" value="9060.871"/>
															</Node>
															<Node id="169" score="250.41176470588235">
																<SimplePredicate field="k_closest_Sensor9" operator="greaterThan" value="9060.871"/>
															</Node>
														</Node>
													</Node>
												</Node>
											</Node>
											<Node id="170">
												<SimplePredicate field="k_closest_Sensor14" operator="greaterThan" value="8140.1216"/>
												<Node id="171">
													<SimplePredicate field="k_closest_Sensor12" operator="lessOrEqual" value="522.245"/>
													<Node id="172">
														<SimplePredicate field="k_closest_Sensor9" operator="lessOrEqual" value="9070.418"/>
														<Node id="173">
															<SimplePredicate field="me_10_5_Sensor9" operator="lessOrEqual" value="1.2536918"/>
															<Node id="174" score="133.73239436619718">
																<SimplePredicate field="sd_10_Sensor3" operator="lessOrEqual" value="3.5642843"/>
															</Node>
															<Node id="175" score="106.45045045045045">
																<SimplePredicate field="sd_10_Sensor3" operator="greaterThan" value="3.5642843"/>
															</Node>
														</Node>
														<Node id="176">
															<SimplePredicate field="me_10_5_Sensor9" operator="greaterThan" value="1.2536918"/>
															<Node id="177" score="131.05925925925925">
																<SimplePredicate field="k_closest_Sensor20" operator="lessOrEqual" value="38.928333"/>
															</Node>
															<Node id="178" score="149.13522012578616">
																<SimplePredicate field="k_closest_Sensor20" operator="greaterThan" value="38.928333"/>
															</Node>
														</Node>
													</Node>
													<Node id="179">
														<SimplePredicate field="k_closest_Sensor9" operator="greaterThan" value="9070.418"/>
														<Node id="180">
															<SimplePredicate field="k_closest_Sensor15" operator="lessOrEqual" value="8.420183"/>
															<Node id="181" score="222">
																<SimplePredicate field="me_10_5_Sensor3" operator="lessOrEqual" value="0.8498821"/>
															</Node>
															<Node id="182" score="122.57333333333334">
																<SimplePredicate field="me_10_5_Sensor3" operator="greaterThan" value="0.8498821"/>
															</Node>
														</Node>
														<Node id="183">
															<SimplePredicate field="k_closest_Sensor15" operator="greaterThan" value="8.420183"/>
															<Node id="184" score="114">
																<SimplePredicate field="Sensor13" operator="lessOrEqual" value="2388.025"/>
															</Node>
															<Node id="185" score="89.02083333333333">
																<SimplePredicate field="Sensor13" operator="greaterThan" value="2388.025"/>
															</Node>
														</Node>
													</Node>
												</Node>
												<Node id="186">
													<SimplePredicate field="k_closest_Sensor12" operator="greaterThan" value="522.245"/>
													<Node id="187">
														<SimplePredicate field="k_closest_Sensor11" operator="lessOrEqual" value="47.295"/>
														<Node id="188">
															<SimplePredicate field="k_closest_Sensor13" operator="lessOrEqual" value="2388.045"/>
															<Node id="189" score="181.13368983957218">
																<SimplePredicate field="sd_10_Sensor4" operator="lessOrEqual" value="3.629922"/>
															</Node>
															<Node id="190" score="160.1010101010101">
																<SimplePredicate field="sd_10_Sensor4" operator="greaterThan" value="3.629922"/>
															</Node>
														</Node>
														<Node id="191">
															<SimplePredicate field="k_closest_Sensor13" operator="greaterThan" value="2388.045"/>
															<Node id="192" score="159.0625">
																<SimplePredicate field="sd_10_Sensor17" operator="lessOrEqual" value="0.8184441"/>
															</Node>
															<Node id="193" score="111.65384615384616">
																<SimplePredicate field="sd_10_Sensor17" operator="greaterThan" value="0.8184441"/>
															</Node>
														</Node>
													</Node>
													<Node id="194">
														<SimplePredicate field="k_closest_Sensor11" operator="greaterThan" value="47.295"/>
														<Node id="195">
															<SimplePredicate field="me_10_5_Sensor4" operator="lessOrEqual" value="1.3457079"/>
															<Node id="196" score="175.84615384615384">
																<SimplePredicate field="k_closest_Sensor8" operator="lessOrEqual" value="2388.0151"/>
															</Node>
															<Node id="197" score="143.34883720930233">
																<SimplePredicate field="k_closest_Sensor8" operator="greaterThan" value="2388.0151"/>
															</Node>
														</Node>
														<Node id="198">
															<SimplePredicate field="me_10_5_Sensor4" operator="greaterThan" value="1.3457079"/>
															<Node id="199" score="180.28571428571428">
																<SimplePredicate field="k_closest_Sensor7" operator="lessOrEqual" value="553.75"/>
															</Node>
															<Node id="200" score="133.69325153374234">
																<SimplePredicate field="k_closest_Sensor7" operator="greaterThan" value="553.75"/>
															</Node>
														</Node>
													</Node>
												</Node>
											</Node>
										</Node>
									</Node>
								</Node>
								<Node id="201">
									<SimplePredicate field="k_closest_Sensor9" operator="greaterThan" value="9075.793"/>
									<Node id="202">
										<SimplePredicate field="k_closest_Sensor14" operator="lessOrEqual" value="8156.3486"/>
										<Node id="203">
											<SimplePredicate field="k_closest_Sensor8" operator="lessOrEqual" value="2387.9683"/>
											<Node id="204">
												<SimplePredicate field="sd_10_Sensor14" operator="lessOrEqual" value="3.6665363"/>
												<Node id="205" score="273">
													<SimplePredicate field="me_10_5_Sensor15" operator="lessOrEqual" value="1.3661588"/>
												</Node>
												<Node id="206" score="254">
													<SimplePredicate field="me_10_5_Sensor15" operator="greaterThan" value="1.3661588"/>
												</Node>
											</Node>
											<Node id="207" score="146">
												<SimplePredicate field="sd_10_Sensor14" operator="greaterThan" value="3.6665363"/>
											</Node>
										</Node>
										<Node id="208">
											<SimplePredicate field="k_closest_Sensor8" operator="greaterThan" value="2387.9683"/>
											<Node id="209">
												<SimplePredicate field="k_closest_Sensor7" operator="lessOrEqual" value="554.29663"/>
												<Node id="210">
													<SimplePredicate field="sd_10_Sensor3" operator="lessOrEqual" value="3.8269992"/>
													<Node id="211">
														<SimplePredicate field="sd_10_Sensor11" operator="lessOrEqual" value="0.06871273"/>
														<Node id="212" score="150">
															<SimplePredicate field="sd_10_Sensor11" operator="lessOrEqual" value="0.059076358"/>
														</Node>
														<Node id="213">
															<SimplePredicate field="sd_10_Sensor11" operator="greaterThan" value="0.059076358"/>
															<Node id="214" score="139">
																<SimplePredicate field="me_10_5_Sensor17" operator="lessOrEqual" value="0.9206471"/>
															</Node>
															<Node id="215" score="143">
																<SimplePredicate field="me_10_5_Sensor17" operator="greaterThan" value="0.9206471"/>
															</Node>
														</Node>
													</Node>
													<Node id="216">
														<SimplePredicate field="sd_10_Sensor11" operator="greaterThan" value="0.06871273"/>
														<Node id="217">
															<SimplePredicate field="me_10_5_Sensor8" operator="lessOrEqual" value="1.4446461"/>
															<Node id="218" score="105.75">
																<SimplePredicate field="sd_10_Sensor15" operator="lessOrEqual" value="0.019931"/>
															</Node>
															<Node id="219" score="118.11111111111111">
																<SimplePredicate field="sd_10_Sensor15" operator="greaterThan" value="0.019931"/>
															</Node>
														</Node>
														<Node id="220">
															<SimplePredicate field="me_10_5_Sensor8" operator="greaterThan" value="1.4446461"/>
															<Node id="221" score="87">
																<SimplePredicate field="sd_10_Sensor9" operator="lessOrEqual" value="3.5727253"/>
															</Node>
															<Node id="222" score="101.57142857142857">
																<SimplePredicate field="sd_10_Sensor9" operator="greaterThan" value="3.5727253"/>
															</Node>
														</Node>
													</Node>
												</Node>
												<Node id="223">
													<SimplePredicate field="sd_10_Sensor3" operator="greaterThan" value="3.8269992"/>
													<Node id="224">
														<SimplePredicate field="sd_10_Sensor12" operator="lessOrEqual" value="0.17862597"/>
														<Node id="225" score="123">
															<SimplePredicate field="k_closest_Sensor15" operator="lessOrEqual" value="8.399967"/>
														</Node>
														<Node id="226" score="130">
															<SimplePredicate field="k_closest_Sensor15" operator="greaterThan" value="8.399967"/>
														</Node>
													</Node>
													<Node id="227">
														<SimplePredicate field="sd_10_Sensor12" operator="greaterThan" value="0.17862597"/>
														<Node id="228">
															<SimplePredicate field="Setting1" operator="lessOrEqual" value="0.0032000002"/>
															<Node id="229" score="95.16666666666667">
																<SimplePredicate field="k_closest_Sensor14" operator="lessOrEqual" value="8151.759"/>
															</Node>
															<Node id="230" score="84.625">
																<SimplePredicate field="k_closest_Sensor14" operator="greaterThan" value="8151.759"/>
															</Node>
														</Node>
														<Node id="231">
															<SimplePredicate field="Setting1" operator="greaterThan" value="0.0032000002"/>
															<Node id="232" score="105">
																<SimplePredicate field="me_10_5_Sensor9" operator="lessOrEqual" value="1.3923212"/>
															</Node>
															<Node id="233" score="121">
																<SimplePredicate field="me_10_5_Sensor9" operator="greaterThan" value="1.3923212"/>
															</Node>
														</Node>
													</Node>
												</Node>
											</Node>
											<Node id="234">
												<SimplePredicate field="k_closest_Sensor7" operator="greaterThan" value="554.29663"/>
												<Node id="235">
													<SimplePredicate field="sd_10_Sensor2" operator="lessOrEqual" value="0.27127415"/>
													<Node id="236">
														<SimplePredicate field="sd_10_Sensor2" operator="lessOrEqual" value="0.24084803"/>
														<Node id="237">
															<SimplePredicate field="Sensor13" operator="lessOrEqual" value="2388.05"/>
															<Node id="238" score="106">
																<SimplePredicate field="sd_10_Sensor21" operator="lessOrEqual" value="0.051775962"/>
															</Node>
															<Node id="239" score="107">
																<SimplePredicate field="sd_10_Sensor21" operator="greaterThan" value="0.051775962"/>
															</Node>
														</Node>
														<Node id="240" score="100">
															<SimplePredicate field="Sensor13" operator="greaterThan" value="2388.05"/>
														</Node>
													</Node>
													<Node id="241">
														<SimplePredicate field="sd_10_Sensor2" operator="greaterThan" value="0.24084803"/>
														<Node id="242" score="83">
															<SimplePredicate field="me_10_5_Sensor21" operator="lessOrEqual" value="1.3753314"/>
														</Node>
														<Node id="243">
															<SimplePredicate field="me_10_5_Sensor21" operator="greaterThan" value="1.3753314"/>
															<Node id="244" score="92">
																<SimplePredicate field="sd_10_Sensor8" operator="lessOrEqual" value="0.024336535"/>
															</Node>
															<Node id="245" score="93">
																<SimplePredicate field="sd_10_Sensor8" operator="greaterThan" value="0.024336535"/>
															</Node>
														</Node>
													</Node>
												</Node>
												<Node id="246">
													<SimplePredicate field="sd_10_Sensor2" operator="greaterThan" value="0.27127415"/>
													<Node id="247">
														<SimplePredicate field="me_10_5_Sensor15" operator="lessOrEqual" value="1.3399965"/>
														<Node id="248" score="114">
															<SimplePredicate field="k_closest_Sensor20" operator="lessOrEqual" value="38.83"/>
														</Node>
														<Node id="249">
															<SimplePredicate field="k_closest_Sensor20" operator="greaterThan" value="38.83"/>
															<Node id="250" score="124.75">
																<SimplePredicate field="me_10_5_Sensor17" operator="lessOrEqual" value="1.3491689"/>
															</Node>
															<Node id="251" score="120">
																<SimplePredicate field="me_10_5_Sensor17" operator="greaterThan" value="1.3491689"/>
															</Node>
														</Node>
													</Node>
													<Node id="252">
														<SimplePredicate field="me_10_5_Sensor15" operator="greaterThan" value="1.3399965"/>
														<Node id="253">
															<SimplePredicate field="me_10_5_Sensor20" operator="lessOrEqual" value="1.4877985"/>
															<Node id="254" score="126">
																<SimplePredicate field="sd_10_Sensor12" operator="lessOrEqual" value="0.24891508"/>
															</Node>
															<Node id="255" score="144.6">
																<SimplePredicate field="sd_10_Sensor12" operator="greaterThan" value="0.24891508"/>
															</Node>
														</Node>
														<Node id="256">
															<SimplePredicate field="me_10_5_Sensor20" operator="greaterThan" value="1.4877985"/>
															<Node id="257" score="160">
																<SimplePredicate field="me_10_5_Sensor7" operator="lessOrEqual" value="1.5139608"/>
															</Node>
															<Node id="258" score="170">
																<SimplePredicate field="me_10_5_Sensor7" operator="greaterThan" value="1.5139608"/>
															</Node>
														</Node>
													</Node>
												</Node>
											</Node>
										</Node>
									</Node>
									<Node id="259">
										<SimplePredicate field="k_closest_Sensor14" operator="greaterThan" value="8156.3486"/>
										<Node id="260">
											<SimplePredicate field="k_closest_Sensor9" operator="lessOrEqual" value="9081.644"/>
											<Node id="261">
												<SimplePredicate field="sd_10_Sensor12" operator="lessOrEqual" value="0.2761901"/>
												<Node id="262">
													<SimplePredicate field="me_10_5_Sensor6" operator="lessOrEqual" value="0.25020123"/>
													<Node id="263">
														<SimplePredicate field="sd_10_Sensor14" operator="lessOrEqual" value="2.9563985"/>
														<Node id="264">
															<SimplePredicate field="sd_10_Sensor17" operator="lessOrEqual" value="1.3156543"/>
															<Node id="265" score="111">
																<SimplePredicate field="Sensor7" operator="lessOrEqual" value="554.43"/>
															</Node>
															<Node id="266" score="114">
																<SimplePredicate field="Sensor7" operator="greaterThan" value="554.43"/>
															</Node>
														</Node>
														<Node id="267" score="120">
															<SimplePredicate field="sd_10_Sensor17" operator="greaterThan" value="1.3156543"/>
														</Node>
													</Node>
													<Node id="268">
														<SimplePredicate field="sd_10_Sensor14" operator="greaterThan" value="2.9563985"/>
														<Node id="269">
															<SimplePredicate field="me_10_5_Sensor9" operator="lessOrEqual" value="1.3923213"/>
															<Node id="270" score="95">
																<SimplePredicate field="me_10_5_Sensor7" operator="lessOrEqual" value="1.4184837"/>
															</Node>
															<Node id="271" score="97.66666666666667">
																<SimplePredicate field="me_10_5_Sensor7" operator="greaterThan" value="1.4184837"/>
															</Node>
														</Node>
														<Node id="272">
															<SimplePredicate field="me_10_5_Sensor9" operator="greaterThan" value="1.3923213"/>
															<Node id="273" score="105.25">
																<SimplePredicate field="sd_10_Sensor2" operator="lessOrEqual" value="0.2676322"/>
															</Node>
															<Node id="274" score="102">
																<SimplePredicate field="sd_10_Sensor2" operator="greaterThan" value="0.2676322"/>
															</Node>
														</Node>
													</Node>
												</Node>
												<Node id="275">
													<SimplePredicate field="me_10_5_Sensor6" operator="greaterThan" value="0.25020123"/>
													<Node id="276" score="72">
														<SimplePredicate field="Setting1" operator="lessOrEqual" value="-0.00365"/>
													</Node>
													<Node id="277">
														<SimplePredicate field="Setting1" operator="greaterThan" value="-0.00365"/>
														<Node id="278" score="90">
															<SimplePredicate field="me_10_5_Sensor13" operator="lessOrEqual" value="1.4446461"/>
														</Node>
														<Node id="279">
															<SimplePredicate field="me_10_5_Sensor13" operator="greaterThan" value="1.4446461"/>
															<Node id="280" score="86.5">
																<SimplePredicate field="sd_10_Sensor15" operator="lessOrEqual" value="0.025825012"/>
															</Node>
															<Node id="281" score="88">
																<SimplePredicate field="sd_10_Sensor15" operator="greaterThan" value="0.025825012"/>
															</Node>
														</Node>
													</Node>
												</Node>
											</Node>
											<Node id="282">
												<SimplePredicate field="sd_10_Sensor12" operator="greaterThan" value="0.2761901"/>
												<Node id="283">
													<SimplePredicate field="k_closest_Sensor15" operator="lessOrEqual" value="8.446567"/>
													<Node id="284">
														<SimplePredicate field="sd_10_Sensor8" operator="lessOrEqual" value="0.033650156"/>
														<Node id="285">
															<SimplePredicate field="me_10_5_Sensor11" operator="lessOrEqual" value="1.4446461"/>
															<Node id="286" score="93.5">
																<SimplePredicate field="Setting2" operator="lessOrEqual" value="2.9999999E-4"/>
															</Node>
															<Node id="287" score="103">
																<SimplePredicate field="Setting2" operator="greaterThan" value="2.9999999E-4"/>
															</Node>
														</Node>
														<Node id="288">
															<SimplePredicate field="me_10_5_Sensor11" operator="greaterThan" value="1.4446461"/>
															<Node id="289" score="81.66666666666667">
																<SimplePredicate field="sd_10_Sensor13" operator="lessOrEqual" value="0.023868918"/>
															</Node>
															<Node id="290" score="85.66666666666667">
																<SimplePredicate field="sd_10_Sensor13" operator="greaterThan" value="0.023868918"/>
															</Node>
														</Node>
													</Node>
													<Node id="291">
														<SimplePredicate field="sd_10_Sensor8" operator="greaterThan" value="0.033650156"/>
														<Node id="292" score="78">
															<SimplePredicate field="sd_10_Sensor11" operator="lessOrEqual" value="0.07123228"/>
														</Node>
														<Node id="293">
															<SimplePredicate field="sd_10_Sensor11" operator="greaterThan" value="0.07123228"/>
															<Node id="294" score="71">
																<SimplePredicate field="me_10_5_Sensor21" operator="lessOrEqual" value="1.2502308"/>
															</Node>
															<Node id="295" score="70">
																<SimplePredicate field="me_10_5_Sensor21" operator="greaterThan" value="1.2502308"/>
															</Node>
														</Node>
													</Node>
												</Node>
												<Node id="296">
													<SimplePredicate field="k_closest_Sensor15" operator="greaterThan" value="8.446567"/>
													<Node id="297" score="46">
														<SimplePredicate field="Sensor2" operator="lessOrEqual" value="642.78503"/>
													</Node>
													<Node id="298" score="54">
														<SimplePredicate field="Sensor2" operator="greaterThan" value="642.78503"/>
													</Node>
												</Node>
											</Node>
										</Node>
										<Node id="299">
											<SimplePredicate field="k_closest_Sensor9" operator="greaterThan" value="9081.644"/>
											<Node id="300">
												<SimplePredicate field="k_closest_Sensor3" operator="lessOrEqual" value="1587.1616"/>
												<Node id="301">
													<SimplePredicate field="sd_10_Sensor2" operator="lessOrEqual" value="0.21768993"/>
													<Node id="302">
														<SimplePredicate field="sd_10_Sensor8" operator="lessOrEqual" value="0.023735456"/>
														<Node id="303">
															<SimplePredicate field="k_closest_Sensor9" operator="lessOrEqual" value="9088.205"/>
															<Node id="304" score="79">
																<SimplePredicate field="sd_10_Sensor14" operator="lessOrEqual" value="2.8372977"/>
															</Node>
															<Node id="305" score="80">
																<SimplePredicate field="sd_10_Sensor14" operator="greaterThan" value="2.8372977"/>
															</Node>
														</Node>
														<Node id="306">
															<SimplePredicate field="k_closest_Sensor9" operator="greaterThan" value="9088.205"/>
															<Node id="307" score="83">
																<SimplePredicate field="k_closest_Sensor17" operator="lessOrEqual" value="392.3333"/>
															</Node>
															<Node id="308" score="81">
																<SimplePredicate field="k_closest_Sensor17" operator="greaterThan" value="392.3333"/>
															</Node>
														</Node>
													</Node>
													<Node id="309">
														<SimplePredicate field="sd_10_Sensor8" operator="greaterThan" value="0.023735456"/>
														<Node id="310">
															<SimplePredicate field="Setting1" operator="lessOrEqual" value="-0.0019"/>
															<Node id="311" score="72">
																<SimplePredicate field="Sensor14" operator="lessOrEqual" value="8167.1553"/>
															</Node>
															<Node id="312" score="77">
																<SimplePredicate field="Sensor14" operator="greaterThan" value="8167.1553"/>
															</Node>
														</Node>
														<Node id="313">
															<SimplePredicate field="Setting1" operator="greaterThan" value="-0.0019"/>
															<Node id="314" score="70">
																<SimplePredicate field="Sensor4" operator="lessOrEqual" value="1399.395"/>
															</Node>
															<Node id="315" score="67">
																<SimplePredicate field="Sensor4" operator="greaterThan" value="1399.395"/>
															</Node>
														</Node>
													</Node>
												</Node>
												<Node id="316">
													<SimplePredicate field="sd_10_Sensor2" operator="greaterThan" value="0.21768993"/>
													<Node id="317">
														<SimplePredicate field="me_10_5_Sensor21" operator="lessOrEqual" value="1.4446461"/>
														<Node id="318">
															<SimplePredicate field="me_10_5_Sensor20" operator="lessOrEqual" value="1.4877985"/>
															<Node id="319" score="81">
																<SimplePredicate field="me_10_5_Sensor8" operator="lessOrEqual" value="1.458175"/>
															</Node>
															<Node id="320" score="80">
																<SimplePredicate field="me_10_5_Sensor8" operator="greaterThan" value="1.458175"/>
															</Node>
														</Node>
														<Node id="321">
															<SimplePredicate field="me_10_5_Sensor20" operator="greaterThan" value="1.4877985"/>
															<Node id="322" score="72">
																<SimplePredicate field="me_10_5_Sensor11" operator="lessOrEqual" value="1.349169"/>
															</Node>
															<Node id="323" score="74">
																<SimplePredicate field="me_10_5_Sensor11" operator="greaterThan" value="1.349169"/>
															</Node>
														</Node>
													</Node>
													<Node id="324">
														<SimplePredicate field="me_10_5_Sensor21" operator="greaterThan" value="1.4446461"/>
														<Node id="325">
															<SimplePredicate field="sd_10_Sensor21" operator="lessOrEqual" value="0.045740914"/>
															<Node id="326" score="102">
																<SimplePredicate field="Sensor4" operator="lessOrEqual" value="1399.3"/>
															</Node>
															<Node id="327" score="94.33333333333333">
																<SimplePredicate field="Sensor4" operator="greaterThan" value="1399.3"/>
															</Node>
														</Node>
														<Node id="328">
															<SimplePredicate field="sd_10_Sensor21" operator="greaterThan" value="0.045740914"/>
															<Node id="329" score="90.2">
																<SimplePredicate field="Setting1" operator="lessOrEqual" value="5.0E-4"/>
															</Node>
															<Node id="330" score="86.42857142857143">
																<SimplePredicate field="Setting1" operator="greaterThan" value="5.0E-4"/>
															</Node>
														</Node>
													</Node>
												</Node>
											</Node>
											<Node id="331">
												<SimplePredicate field="k_closest_Sensor3" operator="greaterThan" value="1587.1616"/>
												<Node id="332">
													<SimplePredicate field="k_closest_Sensor4" operator="lessOrEqual" value="1405.0834"/>
													<Node id="333">
														<SimplePredicate field="me_10_5_Sensor20" operator="lessOrEqual" value="1.236702"/>
														<Node id="334" score="87">
															<SimplePredicate field="Sensor9" operator="lessOrEqual" value="9088.895"/>
														</Node>
														<Node id="335" score="91">
															<SimplePredicate field="Sensor9" operator="greaterThan" value="9088.895"/>
														</Node>
													</Node>
													<Node id="336">
														<SimplePredicate field="me_10_5_Sensor20" operator="greaterThan" value="1.236702"/>
														<Node id="337">
															<SimplePredicate field="k_closest_Sensor9" operator="lessOrEqual" value="9086.68"/>
															<Node id="338" score="72.8125">
																<SimplePredicate field="sd_10_Sensor17" operator="lessOrEqual" value="0.97419286"/>
															</Node>
															<Node id="339" score="83.66666666666667">
																<SimplePredicate field="sd_10_Sensor17" operator="greaterThan" value="0.97419286"/>
															</Node>
														</Node>
														<Node id="340">
															<SimplePredicate field="k_closest_Sensor9" operator="greaterThan" value="9086.68"/>
															<Node id="341" score="67.82352941176471">
																<SimplePredicate field="sd_10_Sensor8" operator="lessOrEqual" value="0.031959623"/>
															</Node>
															<Node id="342" score="58.4">
																<SimplePredicate field="sd_10_Sensor8" operator="greaterThan" value="0.031959623"/>
															</Node>
														</Node>
													</Node>
												</Node>
												<Node id="343">
													<SimplePredicate field="k_closest_Sensor4" operator="greaterThan" value="1405.0834"/>
													<Node id="344">
														<SimplePredicate field="Sensor11" operator="lessOrEqual" value="47.305"/>
														<Node id="345">
															<SimplePredicate field="me_10_5_Sensor4" operator="lessOrEqual" value="1.4877985"/>
															<Node id="346" score="62.57142857142857">
																<SimplePredicate field="sd_10_Sensor17" operator="lessOrEqual" value="0.9681595"/>
															</Node>
															<Node id="347" score="58.333333333333336">
																<SimplePredicate field="sd_10_Sensor17" operator="greaterThan" value="0.9681595"/>
															</Node>
														</Node>
														<Node id="348" score="86">
															<SimplePredicate field="me_10_5_Sensor4" operator="greaterThan" value="1.4877985"/>
														</Node>
													</Node>
													<Node id="349">
														<SimplePredicate field="Sensor11" operator="greaterThan" value="47.305"/>
														<Node id="350">
															<SimplePredicate field="me_10_5_Sensor15" operator="lessOrEqual" value="1.2502308"/>
															<Node id="351" score="53.166666666666664">
																<SimplePredicate field="Sensor14" operator="lessOrEqual" value="8174.74"/>
															</Node>
															<Node id="352" score="56">
																<SimplePredicate field="Sensor14" operator="greaterThan" value="8174.74"/>
															</Node>
														</Node>
														<Node id="353">
															<SimplePredicate field="me_10_5_Sensor15" operator="greaterThan" value="1.2502308"/>
															<Node id="354" score="48.5">
																<SimplePredicate field="me_10_5_Sensor21" operator="lessOrEqual" value="1.4446461"/>
															</Node>
															<Node id="355" score="43">
																<SimplePredicate field="me_10_5_Sensor21" operator="greaterThan" value="1.4446461"/>
															</Node>
														</Node>
													</Node>
												</Node>
											</Node>
										</Node>
									</Node>
								</Node>
							</Node>
							<Node id="356">
								<SimplePredicate field="k_closest_Sensor11" operator="greaterThan" value="47.375"/>
								<Node id="357">
									<SimplePredicate field="k_closest_Sensor9" operator="lessOrEqual" value="9068.109"/>
									<Node id="358">
										<SimplePredicate field="sd_10_Sensor20" operator="lessOrEqual" value="0.027675383"/>
										<Node id="359">
											<SimplePredicate field="k_closest_Sensor3" operator="lessOrEqual" value="1582.4917"/>
											<Node id="360" score="353">
												<SimplePredicate field="k_closest_Sensor21" operator="lessOrEqual" value="23.371784"/>
											</Node>
											<Node id="361" score="337">
												<SimplePredicate field="k_closest_Sensor21" operator="greaterThan" value="23.371784"/>
											</Node>
										</Node>
										<Node id="362">
											<SimplePredicate field="k_closest_Sensor3" operator="greaterThan" value="1582.4917"/>
											<Node id="363">
												<SimplePredicate field="k_closest_Sensor11" operator="lessOrEqual" value="47.421665"/>
												<Node id="364">
													<SimplePredicate field="k_closest_Sensor11" operator="lessOrEqual" value="47.405"/>
													<Node id="365">
														<SimplePredicate field="Sensor14" operator="lessOrEqual" value="8125.5303"/>
														<Node id="366" score="142">
															<SimplePredicate field="Setting1" operator="lessOrEqual" value="5.4999994E-4"/>
														</Node>
														<Node id="367" score="163">
															<SimplePredicate field="Setting1" operator="greaterThan" value="5.4999994E-4"/>
														</Node>
													</Node>
													<Node id="368">
														<SimplePredicate field="Sensor14" operator="greaterThan" value="8125.5303"/>
														<Node id="369">
															<SimplePredicate field="k_closest_Sensor2" operator="lessOrEqual" value="642.21"/>
															<Node id="370" score="150.66666666666666">
																<SimplePredicate field="k_closest_Sensor20" operator="lessOrEqual" value="38.958336"/>
															</Node>
															<Node id="371" score="172">
																<SimplePredicate field="k_closest_Sensor20" operator="greaterThan" value="38.958336"/>
															</Node>
														</Node>
														<Node id="372">
															<SimplePredicate field="k_closest_Sensor2" operator="greaterThan" value="642.21"/>
															<Node id="373" score="211.8">
																<SimplePredicate field="k_closest_Sensor8" operator="lessOrEqual" value="2388.0466"/>
															</Node>
															<Node id="374" score="186.47058823529412">
																<SimplePredicate field="k_closest_Sensor8" operator="greaterThan" value="2388.0466"/>
															</Node>
														</Node>
													</Node>
												</Node>
												<Node id="375">
													<SimplePredicate field="k_closest_Sensor11" operator="greaterThan" value="47.405"/>
													<Node id="376">
														<SimplePredicate field="Sensor13" operator="lessOrEqual" value="2388.03"/>
														<Node id="377">
															<SimplePredicate field="Sensor7" operator="lessOrEqual" value="554.29004"/>
															<Node id="378" score="189">
																<SimplePredicate field="Sensor12" operator="lessOrEqual" value="521.725"/>
															</Node>
															<Node id="379" score="190">
																<SimplePredicate field="Sensor12" operator="greaterThan" value="521.725"/>
															</Node>
														</Node>
														<Node id="380" score="179">
															<SimplePredicate field="Sensor7" operator="greaterThan" value="554.29004"/>
														</Node>
													</Node>
													<Node id="381">
														<SimplePredicate field="Sensor13" operator="greaterThan" value="2388.03"/>
														<Node id="382">
															<SimplePredicate field="Sensor3" operator="lessOrEqual" value="1588.635"/>
															<Node id="383" score="184.66666666666666">
																<SimplePredicate field="Sensor15" operator="lessOrEqual" value="8.421"/>
															</Node>
															<Node id="384" score="156.92307692307693">
																<SimplePredicate field="Sensor15" operator="greaterThan" value="8.421"/>
															</Node>
														</Node>
														<Node id="385">
															<SimplePredicate field="Sensor3" operator="greaterThan" value="1588.635"/>
															<Node id="386" score="127.33333333333333">
																<SimplePredicate field="Sensor3" operator="lessOrEqual" value="1593.165"/>
															</Node>
															<Node id="387" score="143.5">
																<SimplePredicate field="Sensor3" operator="greaterThan" value="1593.165"/>
															</Node>
														</Node>
													</Node>
												</Node>
											</Node>
											<Node id="388">
												<SimplePredicate field="k_closest_Sensor11" operator="greaterThan" value="47.421665"/>
												<Node id="389">
													<SimplePredicate field="k_closest_Sensor12" operator="lessOrEqual" value="522.05334"/>
													<Node id="390">
														<SimplePredicate field="Sensor4" operator="lessOrEqual" value="1404.495"/>
														<Node id="391">
															<SimplePredicate field="Sensor13" operator="lessOrEqual" value="2388.1548"/>
															<Node id="392" score="224.72972972972974">
																<SimplePredicate field="Sensor3" operator="lessOrEqual" value="1587.885"/>
															</Node>
															<Node id="393" score="191.78125">
																<SimplePredicate field="Sensor3" operator="greaterThan" value="1587.885"/>
															</Node>
														</Node>
														<Node id="394">
															<SimplePredicate field="Sensor13" operator="greaterThan" value="2388.1548"/>
															<Node id="395" score="251">
																<SimplePredicate field="Sensor3" operator="lessOrEqual" value="1591.4651"/>
															</Node>
															<Node id="396" score="269">
																<SimplePredicate field="Sensor3" operator="greaterThan" value="1591.4651"/>
															</Node>
														</Node>
													</Node>
													<Node id="397">
														<SimplePredicate field="Sensor4" operator="greaterThan" value="1404.495"/>
														<Node id="398">
															<SimplePredicate field="k_closest_Sensor12" operator="lessOrEqual" value="521.89"/>
															<Node id="399" score="214.78571428571428">
																<SimplePredicate field="k_closest_Sensor15" operator="lessOrEqual" value="8.418283"/>
															</Node>
															<Node id="400" score="183.544776119403">
																<SimplePredicate field="k_closest_Sensor15" operator="greaterThan" value="8.418283"/>
															</Node>
														</Node>
														<Node id="401">
															<SimplePredicate field="k_closest_Sensor12" operator="greaterThan" value="521.89"/>
															<Node id="402" score="169">
																<SimplePredicate field="k_closest_Sensor11" operator="lessOrEqual" value="47.446667"/>
															</Node>
															<Node id="403" score="272.5">
																<SimplePredicate field="k_closest_Sensor11" operator="greaterThan" value="47.446667"/>
															</Node>
														</Node>
													</Node>
												</Node>
												<Node id="404">
													<SimplePredicate field="k_closest_Sensor12" operator="greaterThan" value="522.05334"/>
													<Node id="405">
														<SimplePredicate field="k_closest_Sensor7" operator="lessOrEqual" value="554.20667"/>
														<Node id="406" score="278">
															<SimplePredicate field="k_closest_Sensor17" operator="lessOrEqual" value="392.6667"/>
														</Node>
														<Node id="407">
															<SimplePredicate field="k_closest_Sensor17" operator="greaterThan" value="392.6667"/>
															<Node id="408" score="275">
																<SimplePredicate field="Sensor8" operator="lessOrEqual" value="2388.085"/>
															</Node>
															<Node id="409" score="276">
																<SimplePredicate field="Sensor8" operator="greaterThan" value="2388.085"/>
															</Node>
														</Node>
													</Node>
													<Node id="410" score="336">
														<SimplePredicate field="k_closest_Sensor7" operator="greaterThan" value="554.20667"/>
													</Node>
												</Node>
											</Node>
										</Node>
									</Node>
									<Node id="411">
										<SimplePredicate field="sd_10_Sensor20" operator="greaterThan" value="0.027675383"/>
										<Node id="412">
											<SimplePredicate field="k_closest_Sensor4" operator="lessOrEqual" value="1408.3884"/>
											<Node id="413">
												<SimplePredicate field="k_closest_Sensor21" operator="lessOrEqual" value="23.384632"/>
												<Node id="414">
													<SimplePredicate field="Sensor9" operator="lessOrEqual" value="9064.67"/>
													<Node id="415">
														<SimplePredicate field="sd_10_Sensor14" operator="lessOrEqual" value="3.600428"/>
														<Node id="416">
															<SimplePredicate field="sd_10_Sensor3" operator="lessOrEqual" value="6.363467"/>
															<Node id="417" score="152.64233576642334">
																<SimplePredicate field="sd_10_Sensor12" operator="lessOrEqual" value="0.21276395"/>
															</Node>
															<Node id="418" score="136.63685932388222">
																<SimplePredicate field="sd_10_Sensor12" operator="greaterThan" value="0.21276395"/>
															</Node>
														</Node>
														<Node id="419">
															<SimplePredicate field="sd_10_Sensor3" operator="greaterThan" value="6.363467"/>
															<Node id="420" score="281.2">
																<SimplePredicate field="Sensor8" operator="lessOrEqual" value="2388.08"/>
															</Node>
															<Node id="421" score="201">
																<SimplePredicate field="Sensor8" operator="greaterThan" value="2388.08"/>
															</Node>
														</Node>
													</Node>
													<Node id="422">
														<SimplePredicate field="sd_10_Sensor14" operator="greaterThan" value="3.600428"/>
														<Node id="423">
															<SimplePredicate field="k_closest_Sensor3" operator="lessOrEqual" value="1585.0266"/>
															<Node id="424" score="121">
																<SimplePredicate field="sd_10_Sensor7" operator="lessOrEqual" value="0.3310339"/>
															</Node>
															<Node id="425" score="194.37142857142857">
																<SimplePredicate field="sd_10_Sensor7" operator="greaterThan" value="0.3310339"/>
															</Node>
														</Node>
														<Node id="426">
															<SimplePredicate field="k_closest_Sensor3" operator="greaterThan" value="1585.0266"/>
															<Node id="427" score="140.78787878787878">
																<SimplePredicate field="sd_10_Sensor4" operator="lessOrEqual" value="3.1610374"/>
															</Node>
															<Node id="428" score="110.11111111111111">
																<SimplePredicate field="sd_10_Sensor4" operator="greaterThan" value="3.1610374"/>
															</Node>
														</Node>
													</Node>
												</Node>
												<Node id="429">
													<SimplePredicate field="Sensor9" operator="greaterThan" value="9064.67"/>
													<Node id="430">
														<SimplePredicate field="Sensor12" operator="lessOrEqual" value="521.425"/>
														<Node id="431">
															<SimplePredicate field="sd_10_Sensor11" operator="lessOrEqual" value="0.114588186"/>
															<Node id="432" score="82.25">
																<SimplePredicate field="Sensor13" operator="lessOrEqual" value="2388.0952"/>
															</Node>
															<Node id="433" score="111.54285714285714">
																<SimplePredicate field="Sensor13" operator="greaterThan" value="2388.0952"/>
															</Node>
														</Node>
														<Node id="434">
															<SimplePredicate field="sd_10_Sensor11" operator="greaterThan" value="0.114588186"/>
															<Node id="435" score="102.5">
																<SimplePredicate field="sd_10_Sensor3" operator="lessOrEqual" value="3.6765444"/>
															</Node>
															<Node id="436" score="157.11111111111111">
																<SimplePredicate field="sd_10_Sensor3" operator="greaterThan" value="3.6765444"/>
															</Node>
														</Node>
													</Node>
													<Node id="437">
														<SimplePredicate field="Sensor12" operator="greaterThan" value="521.425"/>
														<Node id="438">
															<SimplePredicate field="k_closest_Sensor4" operator="lessOrEqual" value="1403.175"/>
															<Node id="439" score="133.7058823529412">
																<SimplePredicate field="k_closest_Sensor11" operator="lessOrEqual" value="47.458332"/>
															</Node>
															<Node id="440" score="185.66666666666666">
																<SimplePredicate field="k_closest_Sensor11" operator="greaterThan" value="47.458332"/>
															</Node>
														</Node>
														<Node id="441">
															<SimplePredicate field="k_closest_Sensor4" operator="greaterThan" value="1403.175"/>
															<Node id="442" score="142.25">
																<SimplePredicate field="k_closest_Sensor3" operator="lessOrEqual" value="1586.2466"/>
															</Node>
															<Node id="443" score="109.62711864406779">
																<SimplePredicate field="k_closest_Sensor3" operator="greaterThan" value="1586.2466"/>
															</Node>
														</Node>
													</Node>
												</Node>
											</Node>
											<Node id="444">
												<SimplePredicate field="k_closest_Sensor21" operator="greaterThan" value="23.384632"/>
												<Node id="445">
													<SimplePredicate field="me_10_5_Sensor13" operator="lessOrEqual" value="1.3923212"/>
													<Node id="446">
														<SimplePredicate field="Sensor15" operator="lessOrEqual" value="8.44765"/>
														<Node id="447">
															<SimplePredicate field="Sensor15" operator="lessOrEqual" value="8.422951"/>
															<Node id="448" score="150.78378378378378">
																<SimplePredicate field="k_closest_Sensor17" operator="lessOrEqual" value="392.1667"/>
															</Node>
															<Node id="449" score="115.63636363636364">
																<SimplePredicate field="k_closest_Sensor17" operator="greaterThan" value="392.1667"/>
															</Node>
														</Node>
														<Node id="450">
															<SimplePredicate field="Sensor15" operator="greaterThan" value="8.422951"/>
															<Node id="451" score="188.43243243243242">
																<SimplePredicate field="k_closest_Sensor12" operator="lessOrEqual" value="521.88"/>
															</Node>
															<Node id="452" score="131.125">
																<SimplePredicate field="k_closest_Sensor12" operator="greaterThan" value="521.88"/>
															</Node>
														</Node>
													</Node>
													<Node id="453">
														<SimplePredicate field="Sensor15" operator="greaterThan" value="8.44765"/>
														<Node id="454">
															<SimplePredicate field="sd_10_Sensor11" operator="lessOrEqual" value="0.08117856"/>
															<Node id="455" score="57">
																<SimplePredicate field="Sensor12" operator="lessOrEqual" value="521.53503"/>
															</Node>
															<Node id="456" score="73.55555555555556">
																<SimplePredicate field="Sensor12" operator="greaterThan" value="521.53503"/>
															</Node>
														</Node>
														<Node id="457">
															<SimplePredicate field="sd_10_Sensor11" operator="greaterThan" value="0.08117856"/>
															<Node id="458" score="125">
																<SimplePredicate field="sd_10_Sensor20" operator="lessOrEqual" value="0.11807552"/>
															</Node>
															<Node id="459" score="88">
																<SimplePredicate field="sd_10_Sensor20" operator="greaterThan" value="0.11807552"/>
															</Node>
														</Node>
													</Node>
												</Node>
												<Node id="460">
													<SimplePredicate field="me_10_5_Sensor13" operator="greaterThan" value="1.3923212"/>
													<Node id="461">
														<SimplePredicate field="me_10_5_Sensor8" operator="lessOrEqual" value="1.3923212"/>
														<Node id="462">
															<SimplePredicate field="sd_10_Sensor13" operator="lessOrEqual" value="0.031851098"/>
															<Node id="463" score="269.5405405405405">
																<SimplePredicate field="sd_10_Sensor2" operator="lessOrEqual" value="0.26383913"/>
															</Node>
															<Node id="464" score="179.3170731707317">
																<SimplePredicate field="sd_10_Sensor2" operator="greaterThan" value="0.26383913"/>
															</Node>
														</Node>
														<Node id="465">
															<SimplePredicate field="sd_10_Sensor13" operator="greaterThan" value="0.031851098"/>
															<Node id="466" score="145.23333333333332">
																<SimplePredicate field="sd_10_Sensor7" operator="lessOrEqual" value="0.41457906"/>
															</Node>
															<Node id="467" score="198">
																<SimplePredicate field="sd_10_Sensor7" operator="greaterThan" value="0.41457906"/>
															</Node>
														</Node>
													</Node>
													<Node id="468">
														<SimplePredicate field="me_10_5_Sensor8" operator="greaterThan" value="1.3923212"/>
														<Node id="469">
															<SimplePredicate field="Sensor13" operator="lessOrEqual" value="2388.0352"/>
															<Node id="470" score="107.64285714285714">
																<SimplePredicate field="Sensor9" operator="lessOrEqual" value="9066.855"/>
															</Node>
															<Node id="471" score="170.25">
																<SimplePredicate field="Sensor9" operator="greaterThan" value="9066.855"/>
															</Node>
														</Node>
														<Node id="472">
															<SimplePredicate field="Sensor13" operator="greaterThan" value="2388.0352"/>
															<Node id="473" score="151.1320754716981">
																<SimplePredicate field="sd_10_Sensor17" operator="lessOrEqual" value="0.9923917"/>
															</Node>
															<Node id="474" score="208.9090909090909">
																<SimplePredicate field="sd_10_Sensor17" operator="greaterThan" value="0.9923917"/>
															</Node>
														</Node>
													</Node>
												</Node>
											</Node>
										</Node>
										<Node id="475">
											<SimplePredicate field="k_closest_Sensor4" operator="greaterThan" value="1408.3884"/>
											<Node id="476">
												<SimplePredicate field="k_closest_Sensor9" operator="lessOrEqual" value="9056.883"/>
												<Node id="477">
													<SimplePredicate field="k_closest_Sensor15" operator="lessOrEqual" value="8.4598"/>
													<Node id="478">
														<SimplePredicate field="k_closest_Sensor12" operator="lessOrEqual" value="521.04504"/>
														<Node id="479">
															<SimplePredicate field="k_closest_Sensor2" operator="lessOrEqual" value="642.7317"/>
															<Node id="480" score="48.833333333333336">
																<SimplePredicate field="Sensor21" operator="lessOrEqual" value="23.2"/>
															</Node>
															<Node id="481" score="137.15151515151516">
																<SimplePredicate field="Sensor21" operator="greaterThan" value="23.2"/>
															</Node>
														</Node>
														<Node id="482">
															<SimplePredicate field="k_closest_Sensor2" operator="greaterThan" value="642.7317"/>
															<Node id="483" score="189.5">
																<SimplePredicate field="k_closest_Sensor11" operator="lessOrEqual" value="47.495003"/>
															</Node>
															<Node id="484" score="79.72289156626506">
																<SimplePredicate field="k_closest_Sensor11" operator="greaterThan" value="47.495003"/>
															</Node>
														</Node>
													</Node>
													<Node id="485">
														<SimplePredicate field="k_closest_Sensor12" operator="greaterThan" value="521.04504"/>
														<Node id="486">
															<SimplePredicate field="sd_10_Sensor15" operator="lessOrEqual" value="0.01208251"/>
															<Node id="487" score="140.54054054054055">
																<SimplePredicate field="sd_10_Sensor8" operator="lessOrEqual" value="0.029492468"/>
															</Node>
															<Node id="488" score="193.15151515151516">
																<SimplePredicate field="sd_10_Sensor8" operator="greaterThan" value="0.029492468"/>
															</Node>
														</Node>
														<Node id="489">
															<SimplePredicate field="sd_10_Sensor15" operator="greaterThan" value="0.01208251"/>
															<Node id="490" score="215.33333333333334">
																<SimplePredicate field="sd_10_Sensor20" operator="lessOrEqual" value="0.04263568"/>
															</Node>
															<Node id="491" score="130.6813880126183">
																<SimplePredicate field="sd_10_Sensor20" operator="greaterThan" value="0.04263568"/>
															</Node>
														</Node>
													</Node>
												</Node>
												<Node id="492">
													<SimplePredicate field="k_closest_Sensor15" operator="greaterThan" value="8.4598"/>
													<Node id="493">
														<SimplePredicate field="k_closest_Sensor20" operator="lessOrEqual" value="38.761665"/>
														<Node id="494">
															<SimplePredicate field="sd_10_Sensor17" operator="lessOrEqual" value="0.6518187"/>
															<Node id="495" score="87.54545454545455">
																<SimplePredicate field="sd_10_Sensor9" operator="lessOrEqual" value="3.3739662"/>
															</Node>
															<Node id="496" score="140.6">
																<SimplePredicate field="sd_10_Sensor9" operator="greaterThan" value="3.3739662"/>
															</Node>
														</Node>
														<Node id="497">
															<SimplePredicate field="sd_10_Sensor17" operator="greaterThan" value="0.6518187"/>
															<Node id="498" score="68.15053763440861">
																<SimplePredicate field="Sensor12" operator="lessOrEqual" value="521.53503"/>
															</Node>
															<Node id="499" score="127.16666666666667">
																<SimplePredicate field="Sensor12" operator="greaterThan" value="521.53503"/>
															</Node>
														</Node>
													</Node>
													<Node id="500">
														<SimplePredicate field="k_closest_Sensor20" operator="greaterThan" value="38.761665"/>
														<Node id="501">
															<SimplePredicate field="k_closest_Sensor13" operator="lessOrEqual" value="2388.145"/>
															<Node id="502" score="182">
																<SimplePredicate field="Sensor4" operator="lessOrEqual" value="1408.745"/>
															</Node>
															<Node id="503" score="122.07692307692308">
																<SimplePredicate field="Sensor4" operator="greaterThan" value="1408.745"/>
															</Node>
														</Node>
														<Node id="504">
															<SimplePredicate field="k_closest_Sensor13" operator="greaterThan" value="2388.145"/>
															<Node id="505" score="121.625">
																<SimplePredicate field="k_closest_Sensor4" operator="lessOrEqual" value="1410.4099"/>
															</Node>
															<Node id="506" score="80.3030303030303">
																<SimplePredicate field="k_closest_Sensor4" operator="greaterThan" value="1410.4099"/>
															</Node>
														</Node>
													</Node>
												</Node>
											</Node>
											<Node id="507">
												<SimplePredicate field="k_closest_Sensor9" operator="greaterThan" value="9056.883"/>
												<Node id="508">
													<SimplePredicate field="k_closest_Sensor12" operator="lessOrEqual" value="521.55835"/>
													<Node id="509">
														<SimplePredicate field="k_closest_Sensor2" operator="lessOrEqual" value="642.42163"/>
														<Node id="510">
															<SimplePredicate field="k_closest_Sensor14" operator="lessOrEqual" value="8138.0566"/>
															<Node id="511" score="159.76">
																<SimplePredicate field="Sensor3" operator="lessOrEqual" value="1595.51"/>
															</Node>
															<Node id="512" score="98">
																<SimplePredicate field="Sensor3" operator="greaterThan" value="1595.51"/>
															</Node>
														</Node>
														<Node id="513">
															<SimplePredicate field="k_closest_Sensor14" operator="greaterThan" value="8138.0566"/>
															<Node id="514" score="126.39473684210526">
																<SimplePredicate field="sd_10_Sensor8" operator="lessOrEqual" value="0.027766302"/>
															</Node>
															<Node id="515" score="71.4090909090909">
																<SimplePredicate field="sd_10_Sensor8" operator="greaterThan" value="0.027766302"/>
															</Node>
														</Node>
													</Node>
													<Node id="516">
														<SimplePredicate field="k_closest_Sensor2" operator="greaterThan" value="642.42163"/>
														<Node id="517">
															<SimplePredicate field="sd_10_Sensor13" operator="lessOrEqual" value="0.024627168"/>
															<Node id="518" score="117.6082474226804">
																<SimplePredicate field="Sensor9" operator="lessOrEqual" value="9060.735"/>
															</Node>
															<Node id="519" score="95.03015075376885">
																<SimplePredicate field="Sensor9" operator="greaterThan" value="9060.735"/>
															</Node>
														</Node>
														<Node id="520">
															<SimplePredicate field="sd_10_Sensor13" operator="greaterThan" value="0.024627168"/>
															<Node id="521" score="67.875">
																<SimplePredicate field="k_closest_Sensor12" operator="lessOrEqual" value="521.07166"/>
															</Node>
															<Node id="522" score="89.97887323943662">
																<SimplePredicate field="k_closest_Sensor12" operator="greaterThan" value="521.07166"/>
															</Node>
														</Node>
													</Node>
												</Node>
												<Node id="523">
													<SimplePredicate field="k_closest_Sensor12" operator="greaterThan" value="521.55835"/>
													<Node id="524">
														<SimplePredicate field="sd_10_Sensor14" operator="lessOrEqual" value="3.763013"/>
														<Node id="525">
															<SimplePredicate field="me_10_5_Sensor8" operator="lessOrEqual" value="1.3923212"/>
															<Node id="526" score="103.51127819548873">
																<SimplePredicate field="Sensor11" operator="lessOrEqual" value="47.629997"/>
															</Node>
															<Node id="527" score="147.47368421052633">
																<SimplePredicate field="Sensor11" operator="greaterThan" value="47.629997"/>
															</Node>
														</Node>
														<Node id="528">
															<SimplePredicate field="me_10_5_Sensor8" operator="greaterThan" value="1.3923212"/>
															<Node id="529" score="126.30973451327434">
																<SimplePredicate field="k_closest_Sensor12" operator="lessOrEqual" value="521.83997"/>
															</Node>
															<Node id="530" score="166.22222222222223">
																<SimplePredicate field="k_closest_Sensor12" operator="greaterThan" value="521.83997"/>
															</Node>
														</Node>
													</Node>
													<Node id="531">
														<SimplePredicate field="sd_10_Sensor14" operator="greaterThan" value="3.763013"/>
														<Node id="532">
															<SimplePredicate field="sd_10_Sensor9" operator="lessOrEqual" value="5.1227245"/>
															<Node id="533" score="68.81818181818181">
																<SimplePredicate field="sd_10_Sensor20" operator="lessOrEqual" value="0.103862666"/>
															</Node>
															<Node id="534" score="97.36363636363636">
																<SimplePredicate field="sd_10_Sensor20" operator="greaterThan" value="0.103862666"/>
															</Node>
														</Node>
														<Node id="535">
															<SimplePredicate field="sd_10_Sensor9" operator="greaterThan" value="5.1227245"/>
															<Node id="536" score="144">
																<SimplePredicate field="k_closest_Sensor15" operator="lessOrEqual" value="8.438217"/>
															</Node>
															<Node id="537" score="138">
																<SimplePredicate field="k_closest_Sensor15" operator="greaterThan" value="8.438217"/>
															</Node>
														</Node>
													</Node>
												</Node>
											</Node>
										</Node>
									</Node>
								</Node>
								<Node id="538">
									<SimplePredicate field="k_closest_Sensor9" operator="greaterThan" value="9068.109"/>
									<Node id="539">
										<SimplePredicate field="Sensor9" operator="lessOrEqual" value="9080.22"/>
										<Node id="540">
											<SimplePredicate field="sd_10_Sensor7" operator="lessOrEqual" value="0.055946402"/>
											<Node id="541">
												<SimplePredicate field="Setting2" operator="lessOrEqual" value="-5.0E-5"/>
												<Node id="542" score="360">
													<SimplePredicate field="Sensor12" operator="lessOrEqual" value="522.105"/>
												</Node>
												<Node id="543">
													<SimplePredicate field="Sensor12" operator="greaterThan" value="522.105"/>
													<Node id="544" score="211">
														<SimplePredicate field="Sensor20" operator="lessOrEqual" value="38.93"/>
													</Node>
													<Node id="545">
														<SimplePredicate field="Sensor20" operator="greaterThan" value="38.93"/>
														<Node id="546" score="254">
															<SimplePredicate field="k_closest_Sensor7" operator="lessOrEqual" value="553.685"/>
														</Node>
														<Node id="547" score="291">
															<SimplePredicate field="k_closest_Sensor7" operator="greaterThan" value="553.685"/>
														</Node>
													</Node>
												</Node>
											</Node>
											<Node id="548">
												<SimplePredicate field="Setting2" operator="greaterThan" value="-5.0E-5"/>
												<Node id="549">
													<SimplePredicate field="k_closest_Sensor2" operator="lessOrEqual" value="642.80835"/>
													<Node id="550">
														<SimplePredicate field="Sensor3" operator="lessOrEqual" value="1586.3701"/>
														<Node id="551">
															<SimplePredicate field="k_closest_Sensor12" operator="lessOrEqual" value="521.865"/>
															<Node id="552" score="154.63636363636363">
																<SimplePredicate field="k_closest_Sensor13" operator="lessOrEqual" value="2388.0867"/>
															</Node>
															<Node id="553" score="135">
																<SimplePredicate field="k_closest_Sensor13" operator="greaterThan" value="2388.0867"/>
															</Node>
														</Node>
														<Node id="554" score="198">
															<SimplePredicate field="k_closest_Sensor12" operator="greaterThan" value="521.865"/>
														</Node>
													</Node>
													<Node id="555">
														<SimplePredicate field="Sensor3" operator="greaterThan" value="1586.3701"/>
														<Node id="556">
															<SimplePredicate field="k_closest_Sensor11" operator="lessOrEqual" value="47.461666"/>
															<Node id="557" score="215">
																<SimplePredicate field="k_closest_Sensor14" operator="lessOrEqual" value="8157.0483"/>
															</Node>
															<Node id="558" score="205">
																<SimplePredicate field="k_closest_Sensor14" operator="greaterThan" value="8157.0483"/>
															</Node>
														</Node>
														<Node id="559">
															<SimplePredicate field="k_closest_Sensor11" operator="greaterThan" value="47.461666"/>
															<Node id="560" score="193">
																<SimplePredicate field="Sensor2" operator="lessOrEqual" value="642.35"/>
															</Node>
															<Node id="561" score="178.33333333333334">
																<SimplePredicate field="Sensor2" operator="greaterThan" value="642.35"/>
															</Node>
														</Node>
													</Node>
												</Node>
												<Node id="562">
													<SimplePredicate field="k_closest_Sensor2" operator="greaterThan" value="642.80835"/>
													<Node id="563" score="221">
														<SimplePredicate field="Sensor2" operator="lessOrEqual" value="642.175"/>
													</Node>
													<Node id="564">
														<SimplePredicate field="Sensor2" operator="greaterThan" value="642.175"/>
														<Node id="565" score="255">
															<SimplePredicate field="k_closest_Sensor21" operator="lessOrEqual" value="23.279367"/>
														</Node>
														<Node id="566" score="281">
															<SimplePredicate field="k_closest_Sensor21" operator="greaterThan" value="23.279367"/>
														</Node>
													</Node>
												</Node>
											</Node>
										</Node>
										<Node id="567">
											<SimplePredicate field="sd_10_Sensor7" operator="greaterThan" value="0.055946402"/>
											<Node id="568">
												<SimplePredicate field="k_closest_Sensor15" operator="lessOrEqual" value="8.4324"/>
												<Node id="569">
													<SimplePredicate field="k_closest_Sensor7" operator="lessOrEqual" value="553.755"/>
													<Node id="570">
														<SimplePredicate field="sd_10_Sensor7" operator="lessOrEqual" value="0.40727246"/>
														<Node id="571">
															<SimplePredicate field="me_10_5_Sensor8" operator="lessOrEqual" value="1.5309507"/>
															<Node id="572" score="112.61538461538461">
																<SimplePredicate field="k_closest_Sensor12" operator="lessOrEqual" value="521.33167"/>
															</Node>
															<Node id="573" score="89.7051282051282">
